-1.999999880790710449e-01,-8.666666746139526367e-01,-6.666666269302368164e-02,-6.666666269302368164e-02,-1.999999880790710449e-01,-7.333333492279052734e-01,6.666672229766845703e-02,-4.666666388511657715e-01,-8.666666746139526367e-01,-3.333333134651184082e-01
-6.000000238418579102e-01,-1.999999880790710449e-01,-7.333333492279052734e-01,7.333333492279052734e-01,3.333333730697631836e-01,6.000000238418579102e-01,-7.333333492279052734e-01,-3.333333134651184082e-01,1.000000000000000000e+00,3.333333730697631836e-01
1.000000000000000000e+00,2.000000476837158203e-01,6.000000238418579102e-01,-8.666666746139526367e-01,6.666672229766845703e-02,-7.333333492279052734e-01,-6.666666269302368164e-02,8.666666746139526367e-01,4.666666984558105469e-01,-7.333333492279052734e-01
-1.000000000000000000e+00,1.000000000000000000e+00,1.000000000000000000e+00,1.000000000000000000e+00,-1.000000000000000000e+00,1.000000000000000000e+00,1.000000000000000000e+00,-1.000000000000000000e+00,-1.000000000000000000e+00,1.000000000000000000e+00
